30
8 1 0.8788036129072889 2 0.6170564207063278 28 -0.39423551593789496 5 0.24781956266629246 1 0.9636704998673886 2 0.6999229535973288 5 0.37523639177911683 28 0.32508986883899826
8 0 0.8788036129072889 0 0.9636704998673886 2 0.6259256497523675 3 -0.5285325554688836 29 -0.6953088475537355 2 0.61716722005247 3 -0.1897443631917164 29 0.41832083670389286
10 0 0.6170564207063278 1 0.6259256497523675 0 0.6999229535973288 1 0.61716722005247 3 0.046870668265763804 4 0.7692459129501952 8 -0.3200437646398646 3 -0.35380916472860036 4 -0.8575809004357078 8 -0.16011928147824706
10 1 -0.5285325554688836 2 0.046870668265763804 1 -0.1897443631917164 2 -0.35380916472860036 4 0.29379040030487924 5 -0.6243308830158727 11 0.07735991376818929 4 -0.842552219858953 5 0.90812408680389 11 0.23897097592934569
10 2 0.7692459129501952 3 0.29379040030487924 2 -0.8575809004357078 3 -0.842552219858953 5 -0.9642660666587497 6 -0.9997366370491758 27 -0.0986798320459501 5 -0.2953318415829407 6 -0.686657881938761 27 0.358004397257355
10 0 0.24781956266629246 3 -0.6243308830158727 4 -0.9642660666587497 3 0.90812408680389 4 -0.2953318415829407 6 -0.5801610920380051 7 0.2649110911341255 0 0.37523639177911683 6 -0.5898091810484747 7 0.06330328699816623
10 4 -0.9997366370491758 5 -0.5801610920380051 4 -0.686657881938761 5 -0.5898091810484747 7 0.7597917523242592 8 0.511692652814991 20 -0.10385296255447818 7 -0.6671626374308854 8 -0.8691637021557592 20 -0.26397729728980845
8 5 0.2649110911341255 6 0.7597917523242592 5 0.06330328699816623 6 -0.6671626374308854 8 0.7485943926050198 9 0.8174651679627754 8 0.1100434497795435 9 -0.83624613519463
8 2 -0.3200437646398646 6 0.511692652814991 7 0.7485943926050198 6 -0.8691637021557592 7 0.1100434497795435 9 -0.5163721849353837 2 -0.16011928147824706 9 0.9983340008199502
10 7 0.8174651679627754 8 -0.5163721849353837 7 -0.83624613519463 8 0.9983340008199502 10 -0.019443950197422177 11 -0.8736877185812408 23 0.3636572149530566 10 -0.7141541685596791 11 0.2357492982512044 23 0.8512099062553649
6 9 -0.019443950197422177 9 -0.7141541685596791 11 -0.37674951086581765 12 0.31211386545037145 11 0.06172793957301703 12 -0.7720698560831862
10 3 0.07735991376818929 9 -0.8736877185812408 10 -0.37674951086581765 9 0.2357492982512044 10 0.06172793957301703 12 0.08828571985016387 3 0.23897097592934569 25 -0.37480339642174076 12 -0.7486989453016526 25 -0.3551143354418269
10 10 0.31211386545037145 11 0.08828571985016387 10 -0.7720698560831862 11 -0.7486989453016526 13 0.36010064125308294 14 -0.013145519092636837 17 0.11266704745108602 13 0.43618272083715137 14 0.2876548817790585 17 0.8127294520891284
6 12 0.36010064125308294 12 0.43618272083715137 14 0.07050833315071747 15 0.9606549495614847 14 -0.4772059513242368 15 -0.26023059534550597
8 12 -0.013145519092636837 13 0.07050833315071747 12 0.2876548817790585 13 -0.4772059513242368 16 -0.038419639313683085 24 -0.15922176430952062 16 0.771308528128813 24 0.49702069795707193
6 13 0.9606549495614847 13 -0.26023059534550597 16 0.28453383890532247 17 0.6966118950443347 16 -0.6608992116103232 17 0.8491509093670069
10 14 -0.038419639313683085 15 0.28453383890532247 14 0.771308528128813 15 -0.6608992116103232 17 0.9364221072045771 18 -0.7314477203570493 19 0.6997269754698641 17 0.38932011918383425 18 0.40749487327925804 19 -0.36109769861481467
8 12 0.11266704745108602 15 0.6966118950443347 16 0.9364221072045771 15 0.8491509093670069 16 0.38932011918383425 19 0.9271411019459881 12 0.8127294520891284 19 0.7407200367955782
6 16 -0.7314477203570493 16 0.40749487327925804 20 -0.5514958282201199 21 0.0174850622537146 20 0.7996080268852757 21 -0.8709424534394834
6 16 0.6997269754698641 17 0.9271411019459881 17 0.7407200367955782 21 -0.703345340325165 16 -0.36109769861481467 21 -0.6625279547579723
6 6 -0.10385296255447818 18 -0.5514958282201199 18 0.7996080268852757 22 0.9069023865647368 6 -0.26397729728980845 22 -0.45385366973708474
8 18 0.0174850622537146 19 -0.703345340325165 19 -0.6625279547579723 22 0.8919921559852668 23 0.1299195725942368 18 -0.8709424534394834 22 0.10511866359419919 23 0.7805382165962595
8 20 0.9069023865647368 21 0.8919921559852668 20 -0.45385366973708474 21 0.10511866359419919 23 -0.7482921724629661 26 -0.5400537501563079 23 -0.04394265224301552 26 -0.7473962426756979
8 9 0.3636572149530566 21 0.1299195725942368 22 -0.7482921724629661 21 0.7805382165962595 22 -0.04394265224301552 24 0.11242752593057581 9 0.8512099062553649 24 0.2844900906363206
8 14 -0.15922176430952062 23 0.11242752593057581 23 0.2844900906363206 25 0.3735737485989501 26 0.10699137936676228 14 0.49702069795707193 25 -0.8002355537397254 26 -0.10827833984826762
6 11 -0.37480339642174076 24 0.3735737485989501 24 -0.8002355537397254 26 -0.4893190449095626 11 -0.3551143354418269 26 0.9798830961249312
10 22 -0.5400537501563079 24 0.10699137936676228 25 -0.4893190449095626 24 -0.10827833984826762 25 0.9798830961249312 27 0.5547359478107217 28 0.809221978941959 22 -0.7473962426756979 27 0.38582048135032143 28 0.5813667044532225
6 4 -0.0986798320459501 26 0.5547359478107217 26 0.38582048135032143 4 0.358004397257355 28 0.6368172934747489 28 -0.34287730596073995
8 0 -0.39423551593789496 26 0.809221978941959 27 0.6368172934747489 0 0.32508986883899826 26 0.5813667044532225 29 -0.4568617237961652 27 -0.34287730596073995 29 -0.9993167202663342
4 1 -0.6953088475537355 28 -0.4568617237961652 1 0.41832083670389286 28 -0.9993167202663342
